FANN_FLO_2.1
num_layers=3
learning_rate=0.500000
connection_rate=1.000000
network_type=0
learning_momentum=0.000000
training_algorithm=2
train_error_function=1
train_stop_function=0
cascade_output_change_fraction=0.010000
quickprop_decay=-0.000100
quickprop_mu=1.750000
rprop_increase_factor=1.200000
rprop_decrease_factor=0.500000
rprop_delta_min=0.000000
rprop_delta_max=50.000000
rprop_delta_zero=0.100000
cascade_output_stagnation_epochs=12
cascade_candidate_change_fraction=0.010000
cascade_candidate_stagnation_epochs=12
cascade_max_out_epochs=150
cascade_min_out_epochs=50
cascade_max_cand_epochs=150
cascade_min_cand_epochs=50
cascade_num_candidate_groups=2
bit_fail_limit=3.49999994039535522461e-01
cascade_candidate_limit=1.00000000000000000000e+03
cascade_weight_multiplier=4.00000005960464477539e-01
cascade_activation_functions_count=10
cascade_activation_functions=3 5 7 8 10 11 14 15 16 17 
cascade_activation_steepnesses_count=4
cascade_activation_steepnesses=2.50000000000000000000e-01 5.00000000000000000000e-01 7.50000000000000000000e-01 1.00000000000000000000e+00 
layer_sizes=27 4 7 
scale_included=0
neurons (num_inputs, activation_function, activation_steepness)=(0, 0, 0.00000000000000000000e+00) (0, 0, 0.00000000000000000000e+00) (0, 0, 0.00000000000000000000e+00) (0, 0, 0.00000000000000000000e+00) (0, 0, 0.00000000000000000000e+00) (0, 0, 0.00000000000000000000e+00) (0, 0, 0.00000000000000000000e+00) (0, 0, 0.00000000000000000000e+00) (0, 0, 0.00000000000000000000e+00) (0, 0, 0.00000000000000000000e+00) (0, 0, 0.00000000000000000000e+00) (0, 0, 0.00000000000000000000e+00) (0, 0, 0.00000000000000000000e+00) (0, 0, 0.00000000000000000000e+00) (0, 0, 0.00000000000000000000e+00) (0, 0, 0.00000000000000000000e+00) (0, 0, 0.00000000000000000000e+00) (0, 0, 0.00000000000000000000e+00) (0, 0, 0.00000000000000000000e+00) (0, 0, 0.00000000000000000000e+00) (0, 0, 0.00000000000000000000e+00) (0, 0, 0.00000000000000000000e+00) (0, 0, 0.00000000000000000000e+00) (0, 0, 0.00000000000000000000e+00) (0, 0, 0.00000000000000000000e+00) (0, 0, 0.00000000000000000000e+00) (0, 0, 0.00000000000000000000e+00) (27, 4, 5.00000000000000000000e-01) (27, 4, 5.00000000000000000000e-01) (27, 4, 5.00000000000000000000e-01) (0, 0, 0.00000000000000000000e+00) (4, 4, 5.00000000000000000000e-01) (4, 4, 5.00000000000000000000e-01) (4, 4, 5.00000000000000000000e-01) (4, 4, 5.00000000000000000000e-01) (4, 4, 5.00000000000000000000e-01) (4, 4, 5.00000000000000000000e-01) (0, 0, 0.00000000000000000000e+00) 
connections (connected_to_neuron, weight)=(0, 1.02566337585449218750e+01) (1, -2.97899580001831054688e+00) (2, 5.69353580474853515625e+00) (3, -2.90168356895446777344e+00) (4, -8.61406564712524414062e-01) (5, -3.02138280868530273438e+00) (6, -7.25270688533782958984e-01) (7, -1.68124122619628906250e+01) (8, 1.06696045398712158203e+00) (9, -9.28256320953369140625e+00) (10, -9.92796134948730468750e+00) (11, 1.75813186168670654297e+00) (12, 3.14684891700744628906e+00) (13, -4.08301067352294921875e+00) (14, 1.45174741744995117188e+01) (15, 2.54826259613037109375e+00) (16, 1.42528877258300781250e+01) (17, -2.46504411101341247559e-01) (18, -9.09981131553649902344e-01) (19, -3.96785020828247070312e+00) (20, -1.46159470081329345703e+00) (21, 1.67006187438964843750e+01) (22, -1.51608171463012695312e+01) (23, -2.02751739501953125000e+02) (24, -3.15704364776611328125e+01) (25, 4.57635040283203125000e+01) (26, -2.67999410629272460938e-01) (0, -2.45690107345581054688e+00) (1, 1.35953414440155029297e+00) (2, -2.33064204454421997070e-01) (3, -1.34016501903533935547e+00) (4, -9.07260239124298095703e-01) (5, 7.57090568542480468750e+00) (6, 1.29276676177978515625e+01) (7, -2.21920728683471679688e+00) (8, 1.48910069465637207031e+00) (9, -7.87633895874023437500e+01) (10, -1.03818367004394531250e+02) (11, 2.27458705902099609375e+01) (12, -7.19480438232421875000e+01) (13, 2.47491741180419921875e+00) (14, 8.96291732788085937500e-01) (15, 6.13376535475254058838e-02) (16, -2.87118225097656250000e+01) (17, -1.48392438888549804688e-01) (18, -5.29269039630889892578e-01) (19, 6.26039123535156250000e+00) (20, -2.90395507812500000000e+01) (21, -1.34391887113451957703e-02) (22, -1.46174163818359375000e+01) (23, -8.92803649902343750000e+01) (24, 4.62590667724609375000e+02) (25, 6.81172704696655273438e+00) (26, -1.63192123174667358398e-01) (0, 1.69914608001708984375e+01) (1, 2.50909066200256347656e+00) (2, -9.74128425121307373047e-01) (3, 2.88384222984313964844e+00) (4, 1.00804793834686279297e+00) (5, 3.10599327087402343750e+00) (6, 1.39143733978271484375e+01) (7, 1.19763565063476562500e+01) (8, -3.00752449035644531250e+00) (9, 2.44066500663757324219e+00) (10, 2.17942626953125000000e+02) (11, -8.95314559936523437500e+01) (12, 5.24430227279663085938e+00) (13, 4.01813149452209472656e-01) (14, 2.48742341995239257812e-01) (15, -2.70364608764648437500e+01) (16, 4.42890739440917968750e+01) (17, 5.70719063282012939453e-01) (18, 7.81330883502960205078e-01) (19, 1.05636931955814361572e-01) (20, 1.41122782230377197266e+00) (21, -6.80043172836303710938e+00) (22, 2.03760818481445312500e+02) (23, 2.82542438507080078125e+01) (24, -4.38106727600097656250e+00) (25, 2.94516921043395996094e-01) (26, 1.03859141469001770020e-01) (27, -1.61218643188476562500e+01) (28, 8.89948844909667968750e+00) (29, 2.33248710632324218750e+00) (30, -2.11374831199645996094e+00) (27, -1.07758548110723495483e-02) (28, -2.33184909820556640625e+01) (29, -1.16932821273803710938e+01) (30, 4.65829658508300781250e+00) (27, -1.15395326614379882812e+01) (28, -1.04979333877563476562e+01) (29, 8.47738742828369140625e+00) (30, -1.46001763641834259033e-02) (27, -1.27426350116729736328e+00) (28, 1.26638669967651367188e+01) (29, -1.19113006591796875000e+01) (30, -5.15739202499389648438e+00) (27, 9.13182163238525390625e+00) (28, 3.15951615571975708008e-01) (29, -1.60236862182617187500e+02) (30, 3.58076542615890502930e-01) (27, 7.34568977355957031250e+00) (28, -1.94392272949218750000e+02) (29, -4.41160291433334350586e-01) (30, 5.96817314624786376953e-01) 
